<?xml version="1.0"?>
<!-- DTD for the XMLBIF 0.3 format -->
<!DOCTYPE BIF [
	<!ELEMENT BIF ( NETWORK )*>
	      <!ATTLIST BIF VERSION CDATA #REQUIRED>
	<!ELEMENT NETWORK ( NAME, ( PROPERTY | VARIABLE | DEFINITION )* )>
	<!ELEMENT NAME (#PCDATA)>
	<!ELEMENT VARIABLE ( NAME, ( OUTCOME |  PROPERTY )* ) >
	      <!ATTLIST VARIABLE TYPE (nature|decision|utility) "nature">
	<!ELEMENT OUTCOME (#PCDATA)>
	<!ELEMENT DEFINITION ( FOR | GIVEN | TABLE | PROPERTY )* >
	<!ELEMENT FOR (#PCDATA)>
	<!ELEMENT GIVEN (#PCDATA)>
	<!ELEMENT TABLE (#PCDATA)>
	<!ELEMENT PROPERTY (#PCDATA)>
]>


<BIF VERSION="0.3">
<NETWORK>
<NAME>8-ASIA10k</NAME>
<VARIABLE TYPE="nature">
<NAME>asia</NAME>
<OUTCOME>no</OUTCOME>
<OUTCOME>yes</OUTCOME>
</VARIABLE>
<VARIABLE TYPE="nature">
<NAME>tub</NAME>
<OUTCOME>no</OUTCOME>
<OUTCOME>yes</OUTCOME>
</VARIABLE>
<VARIABLE TYPE="nature">
<NAME>smoke</NAME>
<OUTCOME>no</OUTCOME>
<OUTCOME>yes</OUTCOME>
</VARIABLE>
<VARIABLE TYPE="nature">
<NAME>lung</NAME>
<OUTCOME>no</OUTCOME>
<OUTCOME>yes</OUTCOME>
</VARIABLE>
<VARIABLE TYPE="nature">
<NAME>bronc</NAME>
<OUTCOME>no</OUTCOME>
<OUTCOME>yes</OUTCOME>
</VARIABLE>
<VARIABLE TYPE="nature">
<NAME>either</NAME>
<OUTCOME>no</OUTCOME>
<OUTCOME>yes</OUTCOME>
</VARIABLE>
<VARIABLE TYPE="nature">
<NAME>xray</NAME>
<OUTCOME>no</OUTCOME>
<OUTCOME>yes</OUTCOME>
</VARIABLE>
<VARIABLE TYPE="nature">
<NAME>dysp</NAME>
<OUTCOME>yes</OUTCOME>
<OUTCOME>no</OUTCOME>
</VARIABLE>
<DEFINITION>
<FOR>asia</FOR>
<TABLE>
0.9907509249075093 0.00924907509249075 
</TABLE>
</DEFINITION>
<DEFINITION>
<FOR>tub</FOR>
<GIVEN>asia</GIVEN>
<TABLE>
0.990059541830659 0.009940458169341002 
0.9516129032258065 0.04838709677419355 
</TABLE>
</DEFINITION>
<DEFINITION>
<FOR>smoke</FOR>
<TABLE>
0.5045995400459954 0.4954004599540046 
</TABLE>
</DEFINITION>
<DEFINITION>
<FOR>lung</FOR>
<GIVEN>smoke</GIVEN>
<TABLE>
0.9892015058450565 0.01079849415494353 
0.9026236125126135 0.09737638748738647 
</TABLE>
</DEFINITION>
<DEFINITION>
<FOR>bronc</FOR>
<GIVEN>smoke</GIVEN>
<TABLE>
0.7021002575787597 0.29789974242124034 
0.40232088799192733 0.5976791120080727 
</TABLE>
</DEFINITION>
<DEFINITION>
<FOR>either</FOR>
<GIVEN>lung</GIVEN>
<GIVEN>tub</GIVEN>
<TABLE>
0.999946632511474 5.3367488525989965E-5 
0.005154639175257732 0.9948453608247423 
9.416195856873823E-4 0.9990583804143126 
0.07142857142857142 0.9285714285714286 
</TABLE>
</DEFINITION>
<DEFINITION>
<FOR>xray</FOR>
<GIVEN>either</GIVEN>
<TABLE>
0.9485003735724197 0.05149962642758032 
0.019747235387045814 0.9802527646129542 
</TABLE>
</DEFINITION>
<DEFINITION>
<FOR>dysp</FOR>
<GIVEN>bronc</GIVEN>
<GIVEN>either</GIVEN>
<TABLE>
0.09531517806132166 0.9046848219386784 
0.7090592334494773 0.29094076655052264 
0.8129400339888322 0.18705996601116776 
0.9034582132564841 0.09654178674351585 
</TABLE>
</DEFINITION>
</NETWORK>
</BIF>

